digraph Tree {
node [shape=box] ;
0 [label="X[1] <= 400.5\ngini = 0.667\nsamples = 67000\nvalue = [22443, 22400, 22157]"] ;
1 [label="X[0] <= 19.5\ngini = 0.006\nsamples = 22507\nvalue = [22443, 64, 0]"] ;
0 -> 1 [labeldistance=2.5, labelangle=45, headlabel="True"] ;
2 [label="X[1] <= 399.5\ngini = 0.003\nsamples = 22482\nvalue = [22443, 39, 0]"] ;
1 -> 2 ;
3 [label="gini = 0.0\nsamples = 22341\nvalue = [22341, 0, 0]"] ;
2 -> 3 ;
4 [label="X[3] <= 23.85\ngini = 0.4\nsamples = 141\nvalue = [102, 39, 0]"] ;
2 -> 4 ;
5 [label="X[0] <= 15.5\ngini = 0.496\nsamples = 86\nvalue = [47, 39, 0]"] ;
4 -> 5 ;
6 [label="gini = 0.0\nsamples = 24\nvalue = [24, 0, 0]"] ;
5 -> 6 ;
7 [label="X[3] <= 18.15\ngini = 0.467\nsamples = 62\nvalue = [23, 39, 0]"] ;
5 -> 7 ;
8 [label="gini = 0.0\nsamples = 10\nvalue = [0, 10, 0]"] ;
7 -> 8 ;
9 [label="X[2] <= 2.5\ngini = 0.493\nsamples = 52\nvalue = [23, 29, 0]"] ;
7 -> 9 ;
10 [label="X[3] <= 20.75\ngini = 0.231\nsamples = 15\nvalue = [2, 13, 0]"] ;
9 -> 10 ;
11 [label="gini = 0.0\nsamples = 8\nvalue = [0, 8, 0]"] ;
10 -> 11 ;
12 [label="X[0] <= 16.5\ngini = 0.408\nsamples = 7\nvalue = [2, 5, 0]"] ;
10 -> 12 ;
13 [label="gini = 0.0\nsamples = 1\nvalue = [1, 0, 0]"] ;
12 -> 13 ;
14 [label="gini = 0.278\nsamples = 6\nvalue = [1, 5, 0]"] ;
12 -> 14 ;
15 [label="X[3] <= 18.75\ngini = 0.491\nsamples = 37\nvalue = [21, 16, 0]"] ;
9 -> 15 ;
16 [label="gini = 0.0\nsamples = 3\nvalue = [3, 0, 0]"] ;
15 -> 16 ;
17 [label="X[3] <= 19.85\ngini = 0.498\nsamples = 34\nvalue = [18, 16, 0]"] ;
15 -> 17 ;
18 [label="gini = 0.346\nsamples = 9\nvalue = [2, 7, 0]"] ;
17 -> 18 ;
19 [label="gini = 0.461\nsamples = 25\nvalue = [16, 9, 0]"] ;
17 -> 19 ;
20 [label="gini = 0.0\nsamples = 55\nvalue = [55, 0, 0]"] ;
4 -> 20 ;
21 [label="gini = 0.0\nsamples = 25\nvalue = [0, 25, 0]"] ;
1 -> 21 ;
22 [label="X[4] <= 0.5\ngini = 0.5\nsamples = 44493\nvalue = [0, 22336, 22157]"] ;
0 -> 22 [labeldistance=2.5, labelangle=-45, headlabel="False"] ;
23 [label="gini = 0.0\nsamples = 22336\nvalue = [0, 22336, 0]"] ;
22 -> 23 ;
24 [label="gini = 0.0\nsamples = 22157\nvalue = [0, 0, 22157]"] ;
22 -> 24 ;
}